digraph Tree {
node [shape=box, style="filled", color="black", fontname="helvetica"] ;
edge [fontname="helvetica"] ;
0 [label="Income <= 2750.0\ngini = 0.765\nsamples = 20\nvalue = [2, 8, 3, 3, 2, 2]\nclass = car", fillcolor="#e2f7c5"] ;
1 [label="Age <= 12.0\ngini = 0.719\nsamples = 8\nvalue = [2, 0, 0, 3, 2, 1]\nclass = metro", fillcolor="#deeffb"] ;
0 -> 1 [labeldistance=2.5, labelangle=45, headlabel="True"] ;
2 [label="Gender <= 0.5\ngini = 0.444\nsamples = 3\nvalue = [2, 0, 0, 0, 1, 0]\nclass = bicycle", fillcolor="#f2c09c"] ;
1 -> 2 ;
3 [label="gini = 0.0\nsamples = 2\nvalue = [2, 0, 0, 0, 0, 0]\nclass = bicycle", fillcolor="#e58139"] ;
2 -> 3 ;
4 [label="gini = 0.0\nsamples = 1\nvalue = [0, 0, 0, 0, 1, 0]\nclass = scooter", fillcolor="#8139e5"] ;
2 -> 4 ;
5 [label="Income <= 250.0\ngini = 0.56\nsamples = 5\nvalue = [0, 0, 0, 3, 1, 1]\nclass = metro", fillcolor="#9ccef2"] ;
1 -> 5 ;
6 [label="gini = 0.0\nsamples = 3\nvalue = [0, 0, 0, 3, 0, 0]\nclass = metro", fillcolor="#399de5"] ;
5 -> 6 ;
7 [label="Age <= 46.0\ngini = 0.5\nsamples = 2\nvalue = [0, 0, 0, 0, 1, 1]\nclass = scooter", fillcolor="#ffffff"] ;
5 -> 7 ;
8 [label="gini = 0.0\nsamples = 1\nvalue = [0, 0, 0, 0, 1, 0]\nclass = scooter", fillcolor="#8139e5"] ;
7 -> 8 ;
9 [label="gini = 0.0\nsamples = 1\nvalue = [0, 0, 0, 0, 0, 1]\nclass = taxi", fillcolor="#e5399d"] ;
7 -> 9 ;
10 [label="Age <= 66.0\ngini = 0.486\nsamples = 12\nvalue = [0, 8, 3, 0, 0, 1]\nclass = car", fillcolor="#c9f191"] ;
0 -> 10 [labeldistance=2.5, labelangle=-45, headlabel="False"] ;
11 [label="Income <= 3500.0\ngini = 0.198\nsamples = 9\nvalue = [0, 8, 0, 0, 0, 1]\nclass = car", fillcolor="#a9e852"] ;
10 -> 11 ;
12 [label="Age <= 36.0\ngini = 0.5\nsamples = 2\nvalue = [0, 1, 0, 0, 0, 1]\nclass = car", fillcolor="#ffffff"] ;
11 -> 12 ;
13 [label="gini = 0.0\nsamples = 1\nvalue = [0, 1, 0, 0, 0, 0]\nclass = car", fillcolor="#9de539"] ;
12 -> 13 ;
14 [label="gini = 0.0\nsamples = 1\nvalue = [0, 0, 0, 0, 0, 1]\nclass = taxi", fillcolor="#e5399d"] ;
12 -> 14 ;
15 [label="gini = 0.0\nsamples = 7\nvalue = [0, 7, 0, 0, 0, 0]\nclass = car", fillcolor="#9de539"] ;
11 -> 15 ;
16 [label="gini = 0.0\nsamples = 3\nvalue = [0, 0, 3, 0, 0, 0]\nclass = helicopter", fillcolor="#39e581"] ;
10 -> 16 ;
}